digraph Tree {
node [shape=box] ;
0 [label="女性 <= 0.5\ngini = 0.453\nsamples = 984\nvalue = [643, 341]"] ;
1 [label="年龄 <= 8.5\ngini = 0.283\nsamples = 627\nvalue = [520, 107]"] ;
0 -> 1 [labeldistance=2.5, labelangle=45, headlabel="True"] ;
2 [label="pclass=3rd <= 0.5\ngini = 0.36\nsamples = 17\nvalue = [4, 13]"] ;
1 -> 2 ;
3 [label="gini = 0.0\nsamples = 11\nvalue = [0, 11]"] ;
2 -> 3 ;
4 [label="年龄 <= 3.5\ngini = 0.444\nsamples = 6\nvalue = [4, 2]"] ;
2 -> 4 ;
5 [label="年龄 <= 1.667\ngini = 0.444\nsamples = 3\nvalue = [1, 2]"] ;
4 -> 5 ;
6 [label="gini = 0.0\nsamples = 1\nvalue = [1, 0]"] ;
5 -> 6 ;
7 [label="gini = 0.0\nsamples = 2\nvalue = [0, 2]"] ;
5 -> 7 ;
8 [label="gini = 0.0\nsamples = 3\nvalue = [3, 0]"] ;
4 -> 8 ;
9 [label="pclass=1st <= 0.5\ngini = 0.261\nsamples = 610\nvalue = [516, 94]"] ;
1 -> 9 ;
10 [label="年龄 <= 41.5\ngini = 0.19\nsamples = 471\nvalue = [421, 50]"] ;
9 -> 10 ;
11 [label="年龄 <= 10.0\ngini = 0.198\nsamples = 449\nvalue = [399, 50]"] ;
10 -> 11 ;
12 [label="gini = 0.444\nsamples = 3\nvalue = [2, 1]"] ;
11 -> 12 ;
13 [label="年龄 <= 18.5\ngini = 0.196\nsamples = 446\nvalue = [397, 49]"] ;
11 -> 13 ;
14 [label="gini = 0.0\nsamples = 17\nvalue = [17, 0]"] ;
13 -> 14 ;
15 [label="年龄 <= 20.5\ngini = 0.202\nsamples = 429\nvalue = [380, 49]"] ;
13 -> 15 ;
16 [label="pclass=3rd <= 0.5\ngini = 0.43\nsamples = 16\nvalue = [11, 5]"] ;
15 -> 16 ;
17 [label="年龄 <= 19.5\ngini = 0.444\nsamples = 6\nvalue = [4, 2]"] ;
16 -> 17 ;
18 [label="gini = 0.375\nsamples = 4\nvalue = [3, 1]"] ;
17 -> 18 ;
19 [label="gini = 0.5\nsamples = 2\nvalue = [1, 1]"] ;
17 -> 19 ;
20 [label="年龄 <= 19.5\ngini = 0.42\nsamples = 10\nvalue = [7, 3]"] ;
16 -> 20 ;
21 [label="gini = 0.444\nsamples = 6\nvalue = [4, 2]"] ;
20 -> 21 ;
22 [label="gini = 0.375\nsamples = 4\nvalue = [3, 1]"] ;
20 -> 22 ;
23 [label="年龄 <= 22.5\ngini = 0.19\nsamples = 413\nvalue = [369, 44]"] ;
15 -> 23 ;
24 [label="gini = 0.0\nsamples = 16\nvalue = [16, 0]"] ;
23 -> 24 ;
25 [label="年龄 <= 24.5\ngini = 0.197\nsamples = 397\nvalue = [353, 44]"] ;
23 -> 25 ;
26 [label="年龄 <= 23.5\ngini = 0.32\nsamples = 15\nvalue = [12, 3]"] ;
25 -> 26 ;
27 [label="pclass=2nd <= 0.5\ngini = 0.219\nsamples = 8\nvalue = [7, 1]"] ;
26 -> 27 ;
28 [label="gini = 0.444\nsamples = 3\nvalue = [2, 1]"] ;
27 -> 28 ;
29 [label="gini = 0.0\nsamples = 5\nvalue = [5, 0]"] ;
27 -> 29 ;
30 [label="pclass=2nd <= 0.5\ngini = 0.408\nsamples = 7\nvalue = [5, 2]"] ;
26 -> 30 ;
31 [label="gini = 0.278\nsamples = 6\nvalue = [5, 1]"] ;
30 -> 31 ;
32 [label="gini = 0.0\nsamples = 1\nvalue = [0, 1]"] ;
30 -> 32 ;
33 [label="年龄 <= 31.097\ngini = 0.192\nsamples = 382\nvalue = [341, 41]"] ;
25 -> 33 ;
34 [label="年龄 <= 26.5\ngini = 0.113\nsamples = 50\nvalue = [47, 3]"] ;
33 -> 34 ;
35 [label="pclass=2nd <= 0.5\ngini = 0.18\nsamples = 20\nvalue = [18, 2]"] ;
34 -> 35 ;
36 [label="年龄 <= 25.5\ngini = 0.153\nsamples = 12\nvalue = [11, 1]"] ;
35 -> 36 ;
37 [label="gini = 0.32\nsamples = 5\nvalue = [4, 1]"] ;
36 -> 37 ;
38 [label="gini = 0.0\nsamples = 7\nvalue = [7, 0]"] ;
36 -> 38 ;
39 [label="年龄 <= 25.5\ngini = 0.219\nsamples = 8\nvalue = [7, 1]"] ;
35 -> 39 ;
40 [label="gini = 0.0\nsamples = 5\nvalue = [5, 0]"] ;
39 -> 40 ;
41 [label="gini = 0.444\nsamples = 3\nvalue = [2, 1]"] ;
39 -> 41 ;
42 [label="pclass=3rd <= 0.5\ngini = 0.064\nsamples = 30\nvalue = [29, 1]"] ;
34 -> 42 ;
43 [label="gini = 0.0\nsamples = 18\nvalue = [18, 0]"] ;
42 -> 43 ;
44 [label="年龄 <= 29.5\ngini = 0.153\nsamples = 12\nvalue = [11, 1]"] ;
42 -> 44 ;
45 [label="gini = 0.0\nsamples = 7\nvalue = [7, 0]"] ;
44 -> 45 ;
46 [label="年龄 <= 30.5\ngini = 0.32\nsamples = 5\nvalue = [4, 1]"] ;
44 -> 46 ;
47 [label="gini = 0.444\nsamples = 3\nvalue = [2, 1]"] ;
46 -> 47 ;
48 [label="gini = 0.0\nsamples = 2\nvalue = [2, 0]"] ;
46 -> 48 ;
49 [label="年龄 <= 40.5\ngini = 0.203\nsamples = 332\nvalue = [294, 38]"] ;
33 -> 49 ;
50 [label="年龄 <= 37.0\ngini = 0.2\nsamples = 328\nvalue = [291, 37]"] ;
49 -> 50 ;
51 [label="年龄 <= 35.5\ngini = 0.205\nsamples = 319\nvalue = [282, 37]"] ;
50 -> 51 ;
52 [label="年龄 <= 34.5\ngini = 0.201\nsamples = 317\nvalue = [281, 36]"] ;
51 -> 52 ;
53 [label="年龄 <= 31.597\ngini = 0.203\nsamples = 314\nvalue = [278, 36]"] ;
52 -> 53 ;
54 [label="pclass=2nd <= 0.5\ngini = 0.198\nsamples = 297\nvalue = [264, 33]"] ;
53 -> 54 ;
55 [label="gini = 0.202\nsamples = 263\nvalue = [233, 30]"] ;
54 -> 55 ;
56 [label="gini = 0.161\nsamples = 34\nvalue = [31, 3]"] ;
54 -> 56 ;
57 [label="pclass=2nd <= 0.5\ngini = 0.291\nsamples = 17\nvalue = [14, 3]"] ;
53 -> 57 ;
58 [label="年龄 <= 32.5\ngini = 0.198\nsamples = 9\nvalue = [8, 1]"] ;
57 -> 58 ;
59 [label="gini = 0.278\nsamples = 6\nvalue = [5, 1]"] ;
58 -> 59 ;
60 [label="gini = 0.0\nsamples = 3\nvalue = [3, 0]"] ;
58 -> 60 ;
61 [label="年龄 <= 33.0\ngini = 0.375\nsamples = 8\nvalue = [6, 2]"] ;
57 -> 61 ;
62 [label="gini = 0.444\nsamples = 3\nvalue = [2, 1]"] ;
61 -> 62 ;
63 [label="gini = 0.32\nsamples = 5\nvalue = [4, 1]"] ;
61 -> 63 ;
64 [label="gini = 0.0\nsamples = 3\nvalue = [3, 0]"] ;
52 -> 64 ;
65 [label="gini = 0.5\nsamples = 2\nvalue = [1, 1]"] ;
51 -> 65 ;
66 [label="gini = 0.0\nsamples = 9\nvalue = [9, 0]"] ;
50 -> 66 ;
67 [label="pclass=3rd <= 0.5\ngini = 0.375\nsamples = 4\nvalue = [3, 1]"] ;
49 -> 67 ;
68 [label="gini = 0.5\nsamples = 2\nvalue = [1, 1]"] ;
67 -> 68 ;
69 [label="gini = 0.0\nsamples = 2\nvalue = [2, 0]"] ;
67 -> 69 ;
70 [label="gini = 0.0\nsamples = 22\nvalue = [22, 0]"] ;
10 -> 70 ;
71 [label="年龄 <= 28.5\ngini = 0.433\nsamples = 139\nvalue = [95, 44]"] ;
9 -> 71 ;
72 [label="年龄 <= 17.5\ngini = 0.475\nsamples = 18\nvalue = [7, 11]"] ;
71 -> 72 ;
73 [label="gini = 0.0\nsamples = 3\nvalue = [0, 3]"] ;
72 -> 73 ;
74 [label="年龄 <= 22.5\ngini = 0.498\nsamples = 15\nvalue = [7, 8]"] ;
72 -> 74 ;
75 [label="年龄 <= 19.5\ngini = 0.375\nsamples = 4\nvalue = [3, 1]"] ;
74 -> 75 ;
76 [label="gini = 0.0\nsamples = 1\nvalue = [1, 0]"] ;
75 -> 76 ;
77 [label="年龄 <= 21.5\ngini = 0.444\nsamples = 3\nvalue = [2, 1]"] ;
75 -> 77 ;
78 [label="gini = 0.5\nsamples = 2\nvalue = [1, 1]"] ;
77 -> 78 ;
79 [label="gini = 0.0\nsamples = 1\nvalue = [1, 0]"] ;
77 -> 79 ;
80 [label="年龄 <= 23.5\ngini = 0.463\nsamples = 11\nvalue = [4, 7]"] ;
74 -> 80 ;
81 [label="gini = 0.0\nsamples = 1\nvalue = [0, 1]"] ;
80 -> 81 ;
82 [label="年龄 <= 24.5\ngini = 0.48\nsamples = 10\nvalue = [4, 6]"] ;
80 -> 82 ;
83 [label="gini = 0.444\nsamples = 3\nvalue = [2, 1]"] ;
82 -> 83 ;
84 [label="年龄 <= 27.5\ngini = 0.408\nsamples = 7\nvalue = [2, 5]"] ;
82 -> 84 ;
85 [label="gini = 0.0\nsamples = 3\nvalue = [0, 3]"] ;
84 -> 85 ;
86 [label="gini = 0.5\nsamples = 4\nvalue = [2, 2]"] ;
84 -> 86 ;
87 [label="年龄 <= 60.5\ngini = 0.397\nsamples = 121\nvalue = [88, 33]"] ;
71 -> 87 ;
88 [label="年龄 <= 59.0\ngini = 0.418\nsamples = 111\nvalue = [78, 33]"] ;
87 -> 88 ;
89 [label="年龄 <= 30.5\ngini = 0.413\nsamples = 110\nvalue = [78, 32]"] ;
88 -> 89 ;
90 [label="gini = 0.0\nsamples = 4\nvalue = [4, 0]"] ;
89 -> 90 ;
91 [label="年龄 <= 56.5\ngini = 0.422\nsamples = 106\nvalue = [74, 32]"] ;
89 -> 91 ;
92 [label="年龄 <= 36.5\ngini = 0.428\nsamples = 103\nvalue = [71, 32]"] ;
91 -> 92 ;
93 [label="年龄 <= 33.5\ngini = 0.451\nsamples = 61\nvalue = [40, 21]"] ;
92 -> 93 ;
94 [label="年龄 <= 32.5\ngini = 0.417\nsamples = 54\nvalue = [38, 16]"] ;
93 -> 94 ;
95 [label="年龄 <= 31.097\ngini = 0.426\nsamples = 52\nvalue = [36, 16]"] ;
94 -> 95 ;
96 [label="gini = 0.5\nsamples = 4\nvalue = [2, 2]"] ;
95 -> 96 ;
97 [label="年龄 <= 31.597\ngini = 0.413\nsamples = 48\nvalue = [34, 14]"] ;
95 -> 97 ;
98 [label="gini = 0.405\nsamples = 46\nvalue = [33, 13]"] ;
97 -> 98 ;
99 [label="gini = 0.5\nsamples = 2\nvalue = [1, 1]"] ;
97 -> 99 ;
100 [label="gini = 0.0\nsamples = 2\nvalue = [2, 0]"] ;
94 -> 100 ;
101 [label="年龄 <= 35.5\ngini = 0.408\nsamples = 7\nvalue = [2, 5]"] ;
93 -> 101 ;
102 [label="gini = 0.0\nsamples = 2\nvalue = [0, 2]"] ;
101 -> 102 ;
103 [label="gini = 0.48\nsamples = 5\nvalue = [2, 3]"] ;
101 -> 103 ;
104 [label="年龄 <= 47.5\ngini = 0.387\nsamples = 42\nvalue = [31, 11]"] ;
92 -> 104 ;
105 [label="年龄 <= 45.5\ngini = 0.302\nsamples = 27\nvalue = [22, 5]"] ;
104 -> 105 ;
106 [label="年龄 <= 37.5\ngini = 0.36\nsamples = 17\nvalue = [13, 4]"] ;
105 -> 106 ;
107 [label="gini = 0.0\nsamples = 2\nvalue = [2, 0]"] ;
106 -> 107 ;
108 [label="年龄 <= 40.0\ngini = 0.391\nsamples = 15\nvalue = [11, 4]"] ;
106 -> 108 ;
109 [label="年龄 <= 38.5\ngini = 0.48\nsamples = 5\nvalue = [3, 2]"] ;
108 -> 109 ;
110 [label="gini = 0.5\nsamples = 2\nvalue = [1, 1]"] ;
109 -> 110 ;
111 [label="gini = 0.444\nsamples = 3\nvalue = [2, 1]"] ;
109 -> 111 ;
112 [label="年龄 <= 43.0\ngini = 0.32\nsamples = 10\nvalue = [8, 2]"] ;
108 -> 112 ;
113 [label="gini = 0.0\nsamples = 4\nvalue = [4, 0]"] ;
112 -> 113 ;
114 [label="年龄 <= 44.5\ngini = 0.444\nsamples = 6\nvalue = [4, 2]"] ;
112 -> 114 ;
115 [label="gini = 0.5\nsamples = 2\nvalue = [1, 1]"] ;
114 -> 115 ;
116 [label="gini = 0.375\nsamples = 4\nvalue = [3, 1]"] ;
114 -> 116 ;
117 [label="年龄 <= 46.5\ngini = 0.18\nsamples = 10\nvalue = [9, 1]"] ;
105 -> 117 ;
118 [label="gini = 0.0\nsamples = 5\nvalue = [5, 0]"] ;
117 -> 118 ;
119 [label="gini = 0.32\nsamples = 5\nvalue = [4, 1]"] ;
117 -> 119 ;
120 [label="年龄 <= 49.5\ngini = 0.48\nsamples = 15\nvalue = [9, 6]"] ;
104 -> 120 ;
121 [label="年龄 <= 48.5\ngini = 0.375\nsamples = 4\nvalue = [1, 3]"] ;
120 -> 121 ;
122 [label="gini = 0.0\nsamples = 1\nvalue = [0, 1]"] ;
121 -> 122 ;
123 [label="gini = 0.444\nsamples = 3\nvalue = [1, 2]"] ;
121 -> 123 ;
124 [label="年龄 <= 51.5\ngini = 0.397\nsamples = 11\nvalue = [8, 3]"] ;
120 -> 124 ;
125 [label="gini = 0.0\nsamples = 3\nvalue = [3, 0]"] ;
124 -> 125 ;
126 [label="年龄 <= 53.0\ngini = 0.469\nsamples = 8\nvalue = [5, 3]"] ;
124 -> 126 ;
127 [label="gini = 0.0\nsamples = 1\nvalue = [0, 1]"] ;
126 -> 127 ;
128 [label="年龄 <= 55.5\ngini = 0.408\nsamples = 7\nvalue = [5, 2]"] ;
126 -> 128 ;
129 [label="年龄 <= 54.5\ngini = 0.32\nsamples = 5\nvalue = [4, 1]"] ;
128 -> 129 ;
130 [label="gini = 0.444\nsamples = 3\nvalue = [2, 1]"] ;
129 -> 130 ;
131 [label="gini = 0.0\nsamples = 2\nvalue = [2, 0]"] ;
129 -> 131 ;
132 [label="gini = 0.5\nsamples = 2\nvalue = [1, 1]"] ;
128 -> 132 ;
133 [label="gini = 0.0\nsamples = 3\nvalue = [3, 0]"] ;
91 -> 133 ;
134 [label="gini = 0.0\nsamples = 1\nvalue = [0, 1]"] ;
88 -> 134 ;
135 [label="gini = 0.0\nsamples = 10\nvalue = [10, 0]"] ;
87 -> 135 ;
136 [label="pclass=3rd <= 0.5\ngini = 0.452\nsamples = 357\nvalue = [123, 234]"] ;
0 -> 136 [labeldistance=2.5, labelangle=-45, headlabel="False"] ;
137 [label="pclass=1st <= 0.5\ngini = 0.182\nsamples = 197\nvalue = [20, 177]"] ;
136 -> 137 ;
138 [label="年龄 <= 55.0\ngini = 0.242\nsamples = 85\nvalue = [12, 73]"] ;
137 -> 138 ;
139 [label="年龄 <= 15.5\ngini = 0.228\nsamples = 84\nvalue = [11, 73]"] ;
138 -> 139 ;
140 [label="gini = 0.0\nsamples = 11\nvalue = [0, 11]"] ;
139 -> 140 ;
141 [label="年龄 <= 31.597\ngini = 0.256\nsamples = 73\nvalue = [11, 62]"] ;
139 -> 141 ;
142 [label="年龄 <= 22.5\ngini = 0.31\nsamples = 47\nvalue = [9, 38]"] ;
141 -> 142 ;
143 [label="年龄 <= 21.5\ngini = 0.397\nsamples = 11\nvalue = [3, 8]"] ;
142 -> 143 ;
144 [label="年龄 <= 18.5\ngini = 0.219\nsamples = 8\nvalue = [1, 7]"] ;
143 -> 144 ;
145 [label="gini = 0.444\nsamples = 3\nvalue = [1, 2]"] ;
144 -> 145 ;
146 [label="gini = 0.0\nsamples = 5\nvalue = [0, 5]"] ;
144 -> 146 ;
147 [label="gini = 0.444\nsamples = 3\nvalue = [2, 1]"] ;
143 -> 147 ;
148 [label="年龄 <= 26.5\ngini = 0.278\nsamples = 36\nvalue = [6, 30]"] ;
142 -> 148 ;
149 [label="gini = 0.0\nsamples = 7\nvalue = [0, 7]"] ;
148 -> 149 ;
150 [label="年龄 <= 27.5\ngini = 0.328\nsamples = 29\nvalue = [6, 23]"] ;
148 -> 150 ;
151 [label="gini = 0.5\nsamples = 2\nvalue = [1, 1]"] ;
150 -> 151 ;
152 [label="年龄 <= 29.5\ngini = 0.302\nsamples = 27\nvalue = [5, 22]"] ;
150 -> 152 ;
153 [label="gini = 0.0\nsamples = 3\nvalue = [0, 3]"] ;
152 -> 153 ;
154 [label="年龄 <= 30.5\ngini = 0.33\nsamples = 24\nvalue = [5, 19]"] ;
152 -> 154 ;
155 [label="gini = 0.48\nsamples = 5\nvalue = [2, 3]"] ;
154 -> 155 ;
156 [label="年龄 <= 31.097\ngini = 0.266\nsamples = 19\nvalue = [3, 16]"] ;
154 -> 156 ;
157 [label="gini = 0.0\nsamples = 2\nvalue = [0, 2]"] ;
156 -> 157 ;
158 [label="gini = 0.291\nsamples = 17\nvalue = [3, 14]"] ;
156 -> 158 ;
159 [label="年龄 <= 37.0\ngini = 0.142\nsamples = 26\nvalue = [2, 24]"] ;
141 -> 159 ;
160 [label="gini = 0.0\nsamples = 13\nvalue = [0, 13]"] ;
159 -> 160 ;
161 [label="年龄 <= 39.0\ngini = 0.26\nsamples = 13\nvalue = [2, 11]"] ;
159 -> 161 ;
162 [label="gini = 0.0\nsamples = 1\nvalue = [1, 0]"] ;
161 -> 162 ;
163 [label="年龄 <= 44.5\ngini = 0.153\nsamples = 12\nvalue = [1, 11]"] ;
161 -> 163 ;
164 [label="年龄 <= 43.0\ngini = 0.278\nsamples = 6\nvalue = [1, 5]"] ;
163 -> 164 ;
165 [label="gini = 0.0\nsamples = 5\nvalue = [0, 5]"] ;
164 -> 165 ;
166 [label="gini = 0.0\nsamples = 1\nvalue = [1, 0]"] ;
164 -> 166 ;
167 [label="gini = 0.0\nsamples = 6\nvalue = [0, 6]"] ;
163 -> 167 ;
168 [label="gini = 0.0\nsamples = 1\nvalue = [1, 0]"] ;
138 -> 168 ;
169 [label="年龄 <= 8.0\ngini = 0.133\nsamples = 112\nvalue = [8, 104]"] ;
137 -> 169 ;
170 [label="gini = 0.0\nsamples = 1\nvalue = [1, 0]"] ;
169 -> 170 ;
171 [label="年龄 <= 31.097\ngini = 0.118\nsamples = 111\nvalue = [7, 104]"] ;
169 -> 171 ;
172 [label="gini = 0.0\nsamples = 28\nvalue = [0, 28]"] ;
171 -> 172 ;
173 [label="年龄 <= 62.5\ngini = 0.154\nsamples = 83\nvalue = [7, 76]"] ;
171 -> 173 ;
174 [label="年龄 <= 36.5\ngini = 0.14\nsamples = 79\nvalue = [6, 73]"] ;
173 -> 174 ;
175 [label="年龄 <= 35.5\ngini = 0.21\nsamples = 42\nvalue = [5, 37]"] ;
174 -> 175 ;
176 [label="年龄 <= 32.097\ngini = 0.193\nsamples = 37\nvalue = [4, 33]"] ;
175 -> 176 ;
177 [label="gini = 0.219\nsamples = 32\nvalue = [4, 28]"] ;
176 -> 177 ;
178 [label="gini = 0.0\nsamples = 5\nvalue = [0, 5]"] ;
176 -> 178 ;
179 [label="gini = 0.32\nsamples = 5\nvalue = [1, 4]"] ;
175 -> 179 ;
180 [label="年龄 <= 49.5\ngini = 0.053\nsamples = 37\nvalue = [1, 36]"] ;
174 -> 180 ;
181 [label="gini = 0.0\nsamples = 19\nvalue = [0, 19]"] ;
180 -> 181 ;
182 [label="年龄 <= 50.5\ngini = 0.105\nsamples = 18\nvalue = [1, 17]"] ;
180 -> 182 ;
183 [label="gini = 0.444\nsamples = 3\nvalue = [1, 2]"] ;
182 -> 183 ;
184 [label="gini = 0.0\nsamples = 15\nvalue = [0, 15]"] ;
182 -> 184 ;
185 [label="年龄 <= 63.5\ngini = 0.375\nsamples = 4\nvalue = [1, 3]"] ;
173 -> 185 ;
186 [label="gini = 0.5\nsamples = 2\nvalue = [1, 1]"] ;
185 -> 186 ;
187 [label="gini = 0.0\nsamples = 2\nvalue = [0, 2]"] ;
185 -> 187 ;
188 [label="年龄 <= 32.097\ngini = 0.459\nsamples = 160\nvalue = [103, 57]"] ;
136 -> 188 ;
189 [label="年龄 <= 5.5\ngini = 0.447\nsamples = 148\nvalue = [98, 50]"] ;
188 -> 189 ;
190 [label="年龄 <= 2.5\ngini = 0.375\nsamples = 4\nvalue = [1, 3]"] ;
189 -> 190 ;
191 [label="年龄 <= 1.083\ngini = 0.5\nsamples = 2\nvalue = [1, 1]"] ;
190 -> 191 ;
192 [label="gini = 0.0\nsamples = 1\nvalue = [0, 1]"] ;
191 -> 192 ;
193 [label="gini = 0.0\nsamples = 1\nvalue = [1, 0]"] ;
191 -> 193 ;
194 [label="gini = 0.0\nsamples = 2\nvalue = [0, 2]"] ;
190 -> 194 ;
195 [label="年龄 <= 12.5\ngini = 0.44\nsamples = 144\nvalue = [97, 47]"] ;
189 -> 195 ;
196 [label="gini = 0.0\nsamples = 4\nvalue = [4, 0]"] ;
195 -> 196 ;
197 [label="年龄 <= 30.597\ngini = 0.446\nsamples = 140\nvalue = [93, 47]"] ;
195 -> 197 ;
198 [label="年龄 <= 15.5\ngini = 0.499\nsamples = 23\nvalue = [12, 11]"] ;
197 -> 198 ;
199 [label="gini = 0.0\nsamples = 1\nvalue = [0, 1]"] ;
198 -> 199 ;
200 [label="年龄 <= 21.5\ngini = 0.496\nsamples = 22\nvalue = [12, 10]"] ;
198 -> 200 ;
201 [label="年龄 <= 19.5\ngini = 0.463\nsamples = 11\nvalue = [7, 4]"] ;
200 -> 201 ;
202 [label="年龄 <= 18.5\ngini = 0.494\nsamples = 9\nvalue = [5, 4]"] ;
201 -> 202 ;
203 [label="年龄 <= 17.5\ngini = 0.469\nsamples = 8\nvalue = [5, 3]"] ;
202 -> 203 ;
204 [label="年龄 <= 16.5\ngini = 0.5\nsamples = 4\nvalue = [2, 2]"] ;
203 -> 204 ;
205 [label="gini = 0.5\nsamples = 2\nvalue = [1, 1]"] ;
204 -> 205 ;
206 [label="gini = 0.5\nsamples = 2\nvalue = [1, 1]"] ;
204 -> 206 ;
207 [label="gini = 0.375\nsamples = 4\nvalue = [3, 1]"] ;
203 -> 207 ;
208 [label="gini = 0.0\nsamples = 1\nvalue = [0, 1]"] ;
202 -> 208 ;
209 [label="gini = 0.0\nsamples = 2\nvalue = [2, 0]"] ;
201 -> 209 ;
210 [label="年龄 <= 23.5\ngini = 0.496\nsamples = 11\nvalue = [5, 6]"] ;
200 -> 210 ;
211 [label="年龄 <= 22.5\ngini = 0.375\nsamples = 4\nvalue = [1, 3]"] ;
210 -> 211 ;
212 [label="gini = 0.444\nsamples = 3\nvalue = [1, 2]"] ;
211 -> 212 ;
213 [label="gini = 0.0\nsamples = 1\nvalue = [0, 1]"] ;
211 -> 213 ;
214 [label="年龄 <= 29.0\ngini = 0.49\nsamples = 7\nvalue = [4, 3]"] ;
210 -> 214 ;
215 [label="年龄 <= 25.5\ngini = 0.375\nsamples = 4\nvalue = [3, 1]"] ;
214 -> 215 ;
216 [label="gini = 0.5\nsamples = 2\nvalue = [1, 1]"] ;
215 -> 216 ;
217 [label="gini = 0.0\nsamples = 2\nvalue = [2, 0]"] ;
215 -> 217 ;
218 [label="gini = 0.444\nsamples = 3\nvalue = [1, 2]"] ;
214 -> 218 ;
219 [label="gini = 0.426\nsamples = 117\nvalue = [81, 36]"] ;
197 -> 219 ;
220 [label="年龄 <= 37.0\ngini = 0.486\nsamples = 12\nvalue = [5, 7]"] ;
188 -> 220 ;
221 [label="gini = 0.0\nsamples = 5\nvalue = [0, 5]"] ;
220 -> 221 ;
222 [label="年龄 <= 38.5\ngini = 0.408\nsamples = 7\nvalue = [5, 2]"] ;
220 -> 222 ;
223 [label="gini = 0.5\nsamples = 2\nvalue = [1, 1]"] ;
222 -> 223 ;
224 [label="年龄 <= 44.0\ngini = 0.32\nsamples = 5\nvalue = [4, 1]"] ;
222 -> 224 ;
225 [label="gini = 0.0\nsamples = 2\nvalue = [2, 0]"] ;
224 -> 225 ;
226 [label="年龄 <= 46.5\ngini = 0.444\nsamples = 3\nvalue = [2, 1]"] ;
224 -> 226 ;
227 [label="gini = 0.5\nsamples = 2\nvalue = [1, 1]"] ;
226 -> 227 ;
228 [label="gini = 0.0\nsamples = 1\nvalue = [1, 0]"] ;
226 -> 228 ;
}